{
  "parameters": {
    "W1": [
      [
        -0.00416758,
        -0.00056267
      ],
      [
        -0.02136196,
        0.01640271
      ],
      [
        -0.01793436,
        -0.00841747
      ],
      [
        0.00502881,
        -0.01245288
      ]
    ],
    "W2": [
      [
        -0.01057952,
        -0.00909008,
        0.00551454,
        0.02292208
      ]
    ],
    "b1": [
      [
        0
      ],
      [
        0
      ],
      [
        0
      ],
      [
        0
      ]
    ],
    "b2": [
      [
        0
      ]
    ]
  },
  "X_assess": [
    [
      1.62434536,
      -0.61175641,
      -0.52817175
    ],
    [
      -1.07296862,
      0.86540763,
      -2.3015387
    ]
  ],
  "Y_assess": [[ true, false, true]],
  "cache": {"A1": [[-0.00616578,  0.0020626 ,  0.00349619],
       [-0.05225116,  0.02725659, -0.02646251],
       [-0.02009721,  0.0036869 ,  0.02883756],
       [ 0.02152675, -0.01385234,  0.02599885]], "A2": [[ 0.5002307 ,  0.49985831,  0.50023963]], "Z1": [[-0.00616586,  0.0020626 ,  0.0034962 ],
       [-0.05229879,  0.02726335, -0.02646869],
       [-0.02009991,  0.00368692,  0.02884556],
       [ 0.02153007, -0.01385322,  0.02600471]], "Z2": [[ 0.00092281, -0.00056678,  0.00095853]]},
  "result": {
    "dW1": [[ 0.00301023, -0.00747267],
 [ 0.00257968, -0.00641288],
 [-0.00156892,  0.003893  ],
 [-0.00652037,  0.01618243]],
   "db1": [[ 0.00176201],
 [ 0.00150995],
 [-0.00091736],
 [-0.00381422]],
   "dW2": [[ 0.00078841,  0.01765429, -0.00084166, -0.01022527]],
    "db2":  [[-0.16655712]]
  }
}